<?xml version="1.0" encoding="UTF-8" standalone="yes"?>
<PMML xmlns="http://www.dmg.org/PMML-4_4" xmlns:data="http://jpmml.org/jpmml-model/InlineTable" version="4.4">
	<Header>
		<Application name="JPMML-SkLearn library" version="1.7.3"/>
		<Timestamp>2022-05-01T11:44:33Z</Timestamp>
	</Header>
	<MiningBuildTask>
		<Extension name="repr">PMMLPipeline(steps=[('bagging', BaggingRegressor())])</Extension>
	</MiningBuildTask>
	<DataDictionary>
		<DataField name="2" optype="continuous" dataType="double"/>
		<DataField name="0" optype="continuous" dataType="float"/>
		<DataField name="1" optype="continuous" dataType="float"/>
	</DataDictionary>
	<MiningModel functionName="regression" algorithmName="sklearn.ensemble._bagging.BaggingRegressor">
		<MiningSchema>
			<MiningField name="2" usageType="target"/>
			<MiningField name="0"/>
			<MiningField name="1"/>
		</MiningSchema>
		<LocalTransformations>
			<DerivedField name="double(0)" optype="continuous" dataType="double">
				<FieldRef field="0"/>
			</DerivedField>
			<DerivedField name="double(1)" optype="continuous" dataType="double">
				<FieldRef field="1"/>
			</DerivedField>
		</LocalTransformations>
		<Segmentation multipleModelMethod="average">
			<Segment id="1">
				<True/>
				<TreeModel functionName="regression" algorithmName="sklearn.tree._classes.DecisionTreeRegressor" missingValueStrategy="nullPrediction" noTrueChildStrategy="returnLastPrediction">
					<MiningSchema>
						<MiningField name="double(0)"/>
						<MiningField name="double(1)"/>
					</MiningSchema>
					<Node score="40530.69">
						<True/>
						<Node score="35286.81">
							<SimplePredicate field="double(0)" operator="lessOrEqual" value="202111.5"/>
							<Node score="38363.55">
								<SimplePredicate field="double(0)" operator="lessOrEqual" value="201601.5"/>
								<Node score="39724.29">
									<SimplePredicate field="double(1)" operator="lessOrEqual" value="2.5"/>
								</Node>
								<Node score="37667.41">
									<SimplePredicate field="double(1)" operator="lessOrEqual" value="3.5"/>
								</Node>
								<Node score="38204.55">
									<SimplePredicate field="double(1)" operator="lessOrEqual" value="5.0"/>
								</Node>
							</Node>
							<Node score="28503.62">
								<SimplePredicate field="double(0)" operator="lessOrEqual" value="201656.5"/>
								<Node score="36168.48">
									<SimplePredicate field="double(0)" operator="lessOrEqual" value="201611.5"/>
									<Node score="29659.629999999997">
										<SimplePredicate field="double(1)" operator="lessOrEqual" value="4.5"/>
										<Node score="32102.47">
											<SimplePredicate field="double(0)" operator="lessOrEqual" value="201610.5"/>
											<Node score="30492.62">
												<SimplePredicate field="double(0)" operator="lessOrEqual" value="201602.5"/>
												<Node score="33877.34">
													<SimplePredicate field="double(1)" operator="lessOrEqual" value="3.5"/>
													<Node score="33125.31">
														<SimplePredicate field="double(1)" operator="lessOrEqual" value="2.0"/>
													</Node>
												</Node>
											</Node>
											<Node score="37914.91">
												<SimplePredicate field="double(1)" operator="lessOrEqual" value="2.5"/>
												<Node score="39834.96">
													<SimplePredicate field="double(1)" operator="lessOrEqual" value="1.5"/>
													<Node score="32690.54">
														<SimplePredicate field="double(0)" operator="lessOrEqual" value="201606.5"/>
														<Node score="38604.29">
															<SimplePredicate field="double(0)" operator="lessOrEqual" value="201603.5"/>
														</Node>
														<Node score="32094.74">
															<SimplePredicate field="double(0)" operator="lessOrEqual" value="201604.5"/>
														</Node>
														<Node score="37148.29">
															<SimplePredicate field="double(0)" operator="lessOrEqual" value="201605.5"/>
														</Node>
													</Node>
												</Node>
												<Node score="27144.55">
													<SimplePredicate field="double(0)" operator="lessOrEqual" value="201608.5"/>
													<Node score="34221.28">
														<SimplePredicate field="double(0)" operator="lessOrEqual" value="201605.5"/>
														<Node score="35308.1">
															<SimplePredicate field="double(0)" operator="lessOrEqual" value="201603.5"/>
														</Node>
													</Node>
												</Node>
											</Node>
											<Node score="32174.94">
												<SimplePredicate field="double(0)" operator="lessOrEqual" value="201605.0"/>
												<Node score="38387.85">
													<SimplePredicate field="double(0)" operator="lessOrEqual" value="201603.5"/>
												</Node>
												<Node score="31788.16">
													<SimplePredicate field="double(1)" operator="lessOrEqual" value="3.5"/>
												</Node>
											</Node>
											<Node score="40891.95">
												<SimplePredicate field="double(0)" operator="lessOrEqual" value="201607.5"/>
												<Node score="37856.93">
													<SimplePredicate field="double(0)" operator="lessOrEqual" value="201606.5"/>
												</Node>
												<Node score="41571.18">
													<SimplePredicate field="double(1)" operator="lessOrEqual" value="3.5"/>
												</Node>
											</Node>
											<Node score="37182.73">
												<SimplePredicate field="double(1)" operator="lessOrEqual" value="3.5"/>
												<Node score="34330.55">
													<SimplePredicate field="double(0)" operator="lessOrEqual" value="201608.5"/>
												</Node>
												<Node score="41047.8">
													<SimplePredicate field="double(0)" operator="lessOrEqual" value="201609.5"/>
												</Node>
											</Node>
										</Node>
										<Node score="36049.16">
											<SimplePredicate field="double(1)" operator="lessOrEqual" value="2.0"/>
										</Node>
										<Node score="31576.21">
											<SimplePredicate field="double(1)" operator="lessOrEqual" value="3.5"/>
										</Node>
									</Node>
									<Node score="38676.58">
										<SimplePredicate field="double(0)" operator="lessOrEqual" value="201606.5"/>
										<Node score="33740.76">
											<SimplePredicate field="double(0)" operator="lessOrEqual" value="201603.5"/>
											<Node score="36159.59">
												<SimplePredicate field="double(1)" operator="lessOrEqual" value="5.5"/>
											</Node>
										</Node>
										<Node score="43833.0">
											<SimplePredicate field="double(1)" operator="lessOrEqual" value="5.5"/>
											<Node score="42879.37">
												<SimplePredicate field="double(0)" operator="lessOrEqual" value="201604.5"/>
											</Node>
										</Node>
									</Node>
									<Node score="32298.25">
										<SimplePredicate field="double(0)" operator="lessOrEqual" value="201610.5"/>
										<Node score="35835.64">
											<SimplePredicate field="double(0)" operator="lessOrEqual" value="201609.5"/>
											<Node score="33086.38">
												<SimplePredicate field="double(1)" operator="lessOrEqual" value="5.5"/>
											</Node>
											<Node score="34385.56">
												<SimplePredicate field="double(0)" operator="lessOrEqual" value="201608.5"/>
											</Node>
										</Node>
									</Node>
									<Node score="40194.01">
										<SimplePredicate field="double(1)" operator="lessOrEqual" value="5.5"/>
									</Node>
								</Node>
								<Node score="29159.84">
									<SimplePredicate field="double(1)" operator="lessOrEqual" value="4.0"/>
									<Node score="26696.05">
										<SimplePredicate field="double(1)" operator="lessOrEqual" value="2.0"/>
									</Node>
								</Node>
								<Node score="25631.4">
									<SimplePredicate field="double(1)" operator="lessOrEqual" value="5.5"/>
								</Node>
							</Node>
							<Node score="44083.31">
								<SimplePredicate field="double(0)" operator="lessOrEqual" value="201707.5"/>
								<Node score="35700.47">
									<SimplePredicate field="double(0)" operator="lessOrEqual" value="201706.5"/>
									<Node score="35220.97">
										<SimplePredicate field="double(0)" operator="lessOrEqual" value="201701.5"/>
										<Node score="41898.77">
											<SimplePredicate field="double(1)" operator="lessOrEqual" value="4.0"/>
											<Node score="39997.03">
												<SimplePredicate field="double(1)" operator="lessOrEqual" value="1.5"/>
											</Node>
										</Node>
									</Node>
									<Node score="33787.02">
										<SimplePredicate field="double(1)" operator="lessOrEqual" value="5.5"/>
										<Node score="38024.49">
											<SimplePredicate field="double(1)" operator="lessOrEqual" value="4.5"/>
											<Node score="33919.32">
												<SimplePredicate field="double(0)" operator="lessOrEqual" value="201702.5"/>
												<Node score="34803.52">
													<SimplePredicate field="double(1)" operator="lessOrEqual" value="3.5"/>
												</Node>
											</Node>
											<Node score="34929.0">
												<SimplePredicate field="double(1)" operator="lessOrEqual" value="2.5"/>
												<Node score="36801.73">
													<SimplePredicate field="double(1)" operator="lessOrEqual" value="1.5"/>
													<Node score="33231.17">
														<SimplePredicate field="double(0)" operator="lessOrEqual" value="201705.5"/>
														<Node score="34826.91">
															<SimplePredicate field="double(0)" operator="lessOrEqual" value="201704.5"/>
														</Node>
													</Node>
												</Node>
												<Node score="36156.21">
													<SimplePredicate field="double(0)" operator="lessOrEqual" value="201705.0"/>
													<Node score="35511.84">
														<SimplePredicate field="double(0)" operator="lessOrEqual" value="201703.5"/>
													</Node>
												</Node>
											</Node>
											<Node score="39326.99">
												<SimplePredicate field="double(0)" operator="lessOrEqual" value="201704.5"/>
												<Node score="38869.9">
													<SimplePredicate field="double(0)" operator="lessOrEqual" value="201703.5"/>
												</Node>
											</Node>
											<Node score="35077.47">
												<SimplePredicate field="double(1)" operator="lessOrEqual" value="3.5"/>
											</Node>
										</Node>
										<Node score="27439.07">
											<SimplePredicate field="double(0)" operator="lessOrEqual" value="201704.5"/>
											<Node score="28965.94">
												<SimplePredicate field="double(0)" operator="lessOrEqual" value="201703.5"/>
												<Node score="30355.34">
													<SimplePredicate field="double(0)" operator="lessOrEqual" value="201702.5"/>
												</Node>
											</Node>
										</Node>
										<Node score="37298.02">
											<SimplePredicate field="double(0)" operator="lessOrEqual" value="201705.5"/>
										</Node>
									</Node>
									<Node score="41629.12">
										<SimplePredicate field="double(0)" operator="lessOrEqual" value="201705.5"/>
										<Node score="38808.52">
											<SimplePredicate field="double(0)" operator="lessOrEqual" value="201703.5"/>
										</Node>
									</Node>
								</Node>
								<Node score="35837.19">
									<SimplePredicate field="double(1)" operator="lessOrEqual" value="3.5"/>
									<Node score="41843.93">
										<SimplePredicate field="double(1)" operator="lessOrEqual" value="1.5"/>
									</Node>
									<Node score="34068.07">
										<SimplePredicate field="double(1)" operator="lessOrEqual" value="2.5"/>
									</Node>
								</Node>
							</Node>
							<Node score="28354.51">
								<SimplePredicate field="double(0)" operator="lessOrEqual" value="201711.5"/>
								<Node score="29991.64">
									<SimplePredicate field="double(1)" operator="lessOrEqual" value="5.0"/>
									<Node score="35203.44">
										<SimplePredicate field="double(1)" operator="lessOrEqual" value="3.5"/>
										<Node score="29598.849999999995">
											<SimplePredicate field="double(0)" operator="lessOrEqual" value="201708.5"/>
											<Node score="23710.49">
												<SimplePredicate field="double(1)" operator="lessOrEqual" value="2.5"/>
											</Node>
										</Node>
										<Node score="31323.93">
											<SimplePredicate field="double(1)" operator="lessOrEqual" value="2.5"/>
											<Node score="32224.85">
												<SimplePredicate field="double(0)" operator="lessOrEqual" value="201709.5"/>
												<Node score="26417.08">
													<SimplePredicate field="double(1)" operator="lessOrEqual" value="1.5"/>
												</Node>
											</Node>
											<Node score="34899.78">
												<SimplePredicate field="double(1)" operator="lessOrEqual" value="1.5"/>
											</Node>
										</Node>
									</Node>
									<Node score="38889.15">
										<SimplePredicate field="double(0)" operator="lessOrEqual" value="201710.5"/>
										<Node score="38636.76">
											<SimplePredicate field="double(0)" operator="lessOrEqual" value="201709.0"/>
										</Node>
									</Node>
								</Node>
								<Node score="27161.66">
									<SimplePredicate field="double(0)" operator="lessOrEqual" value="201709.5"/>
									<Node score="26364.62">
										<SimplePredicate field="double(0)" operator="lessOrEqual" value="201708.5"/>
									</Node>
								</Node>
							</Node>
							<Node score="30796.37">
								<SimplePredicate field="double(0)" operator="lessOrEqual" value="201808.5"/>
								<Node score="34881.85">
									<SimplePredicate field="double(1)" operator="lessOrEqual" value="1.5"/>
									<Node score="24692.19">
										<SimplePredicate field="double(0)" operator="lessOrEqual" value="201757.0"/>
									</Node>
									<Node score="46062.83">
										<SimplePredicate field="double(0)" operator="lessOrEqual" value="201803.0"/>
									</Node>
									<Node score="33075.29">
										<SimplePredicate field="double(0)" operator="lessOrEqual" value="201805.5"/>
										<Node score="31309.65">
											<SimplePredicate field="double(0)" operator="lessOrEqual" value="201804.5"/>
										</Node>
									</Node>
									<Node score="37292.72">
										<SimplePredicate field="double(0)" operator="lessOrEqual" value="201807.5"/>
										<Node score="37799.97">
											<SimplePredicate field="double(0)" operator="lessOrEqual" value="201806.5"/>
										</Node>
									</Node>
								</Node>
								<Node score="28182.5">
									<SimplePredicate field="double(0)" operator="lessOrEqual" value="201756.5"/>
									<Node score="44128.37">
										<SimplePredicate field="double(1)" operator="lessOrEqual" value="5.5"/>
										<Node score="40677.01">
											<SimplePredicate field="double(1)" operator="lessOrEqual" value="4.5"/>
											<Node score="42006.48">
												<SimplePredicate field="double(1)" operator="lessOrEqual" value="3.5"/>
											</Node>
										</Node>
									</Node>
								</Node>
								<Node score="28248.77">
									<SimplePredicate field="double(0)" operator="lessOrEqual" value="201803.5"/>
									<Node score="34416.61">
										<SimplePredicate field="double(1)" operator="lessOrEqual" value="5.5"/>
										<Node score="36443.44">
											<SimplePredicate field="double(0)" operator="lessOrEqual" value="201802.5"/>
											<Node score="31883.63">
												<SimplePredicate field="double(1)" operator="lessOrEqual" value="3.5"/>
												<Node score="30128.28">
													<SimplePredicate field="double(0)" operator="lessOrEqual" value="201801.5"/>
												</Node>
											</Node>
											<Node score="34908.03">
												<SimplePredicate field="double(1)" operator="lessOrEqual" value="4.5"/>
											</Node>
											<Node score="39875.87">
												<SimplePredicate field="double(0)" operator="lessOrEqual" value="201801.5"/>
											</Node>
										</Node>
										<Node score="37378.37">
											<SimplePredicate field="double(1)" operator="lessOrEqual" value="3.0"/>
										</Node>
										<Node score="35250.52">
											<SimplePredicate field="double(1)" operator="lessOrEqual" value="4.5"/>
										</Node>
									</Node>
									<Node score="34168.06">
										<SimplePredicate field="double(0)" operator="lessOrEqual" value="201802.5"/>
									</Node>
								</Node>
								<Node score="46553.52">
									<SimplePredicate field="double(1)" operator="lessOrEqual" value="2.5"/>
									<Node score="36003.67">
										<SimplePredicate field="double(0)" operator="lessOrEqual" value="201807.0"/>
									</Node>
								</Node>
								<Node score="46544.58">
									<SimplePredicate field="double(0)" operator="lessOrEqual" value="201804.5"/>
									<Node score="33897.93">
										<SimplePredicate field="double(1)" operator="lessOrEqual" value="5.5"/>
										<Node score="37484.79">
											<SimplePredicate field="double(1)" operator="lessOrEqual" value="4.5"/>
											<Node score="39184.31">
												<SimplePredicate field="double(1)" operator="lessOrEqual" value="3.5"/>
											</Node>
										</Node>
									</Node>
								</Node>
								<Node score="34196.97">
									<SimplePredicate field="double(1)" operator="lessOrEqual" value="3.5"/>
									<Node score="36938.07">
										<SimplePredicate field="double(0)" operator="lessOrEqual" value="201805.5"/>
									</Node>
									<Node score="31746.65">
										<SimplePredicate field="double(0)" operator="lessOrEqual" value="201806.5"/>
									</Node>
								</Node>
								<Node score="40156.43">
									<SimplePredicate field="double(1)" operator="lessOrEqual" value="5.5"/>
									<Node score="36724.92">
										<SimplePredicate field="double(1)" operator="lessOrEqual" value="4.5"/>
									</Node>
									<Node score="42109.44">
										<SimplePredicate field="double(0)" operator="lessOrEqual" value="201806.5"/>
									</Node>
								</Node>
								<Node score="42983.13">
									<SimplePredicate field="double(0)" operator="lessOrEqual" value="201806.5"/>
									<Node score="33474.67">
										<SimplePredicate field="double(0)" operator="lessOrEqual" value="201805.5"/>
									</Node>
								</Node>
								<Node score="33748.42">
									<SimplePredicate field="double(0)" operator="lessOrEqual" value="201807.5"/>
								</Node>
							</Node>
							<Node score="32556.87">
								<SimplePredicate field="double(0)" operator="lessOrEqual" value="202105.5"/>
								<Node score="32261.57">
									<SimplePredicate field="double(0)" operator="lessOrEqual" value="202103.5"/>
									<Node score="36442.04">
										<SimplePredicate field="double(0)" operator="lessOrEqual" value="202009.5"/>
										<Node score="34257.15">
											<SimplePredicate field="double(0)" operator="lessOrEqual" value="202007.5"/>
											<Node score="33112.6">
												<SimplePredicate field="double(1)" operator="lessOrEqual" value="1.5"/>
												<Node score="40429.71">
													<SimplePredicate field="double(0)" operator="lessOrEqual" value="202004.5"/>
													<Node score="31438.29">
														<SimplePredicate field="double(0)" operator="lessOrEqual" value="202003.5"/>
														<Node score="35856.92">
															<SimplePredicate field="double(0)" operator="lessOrEqual" value="202002.5"/>
															<Node score="39788.68">
																<SimplePredicate field="double(0)" operator="lessOrEqual" value="201904.0"/>
																<Node score="38468.39">
																	<SimplePredicate field="double(0)" operator="lessOrEqual" value="201857.0"/>
																	<Node score="38446.36">
																		<SimplePredicate field="double(0)" operator="lessOrEqual" value="201810.5"/>
																	</Node>
																</Node>
															</Node>
															<Node score="35053.44">
																<SimplePredicate field="double(0)" operator="lessOrEqual" value="201908.5"/>
																<Node score="33916.64">
																	<SimplePredicate field="double(0)" operator="lessOrEqual" value="201907.0"/>
																</Node>
															</Node>
															<Node score="42547.57">
																<SimplePredicate field="double(0)" operator="lessOrEqual" value="201956.5"/>
																<Node score="36754.77">
																	<SimplePredicate field="double(0)" operator="lessOrEqual" value="201910.5"/>
																</Node>
															</Node>
															<Node score="35507.05">
																<SimplePredicate field="double(0)" operator="lessOrEqual" value="202001.5"/>
															</Node>
														</Node>
													</Node>
												</Node>
												<Node score="34497.68">
													<SimplePredicate field="double(0)" operator="lessOrEqual" value="202006.5"/>
													<Node score="34946.3">
														<SimplePredicate field="double(0)" operator="lessOrEqual" value="202005.5"/>
													</Node>
												</Node>
											</Node>
											<Node score="33615.9">
												<SimplePredicate field="double(0)" operator="lessOrEqual" value="201809.5"/>
												<Node score="28885.53">
													<SimplePredicate field="double(1)" operator="lessOrEqual" value="3.5"/>
												</Node>
											</Node>
											<Node score="30972.1">
												<SimplePredicate field="double(0)" operator="lessOrEqual" value="201909.5"/>
												<Node score="40110.31">
													<SimplePredicate field="double(0)" operator="lessOrEqual" value="201903.5"/>
													<Node score="27523.8">
														<SimplePredicate field="double(0)" operator="lessOrEqual" value="201901.5"/>
														<Node score="36845.65">
															<SimplePredicate field="double(1)" operator="lessOrEqual" value="5.5"/>
															<Node score="28416.54">
																<SimplePredicate field="double(0)" operator="lessOrEqual" value="201856.5"/>
																<Node score="34937.77">
																	<SimplePredicate field="double(0)" operator="lessOrEqual" value="201811.5"/>
																	<Node score="36207.3">
																		<SimplePredicate field="double(1)" operator="lessOrEqual" value="2.5"/>
																		<Node score="33742.19">
																			<SimplePredicate field="double(0)" operator="lessOrEqual" value="201810.5"/>
																		</Node>
																	</Node>
																	<Node score="37480.95">
																		<SimplePredicate field="double(0)" operator="lessOrEqual" value="201810.5"/>
																	</Node>
																</Node>
																<Node score="31058.28">
																	<SimplePredicate field="double(1)" operator="lessOrEqual" value="3.5"/>
																</Node>
															</Node>
															<Node score="39153.43">
																<SimplePredicate field="double(1)" operator="lessOrEqual" value="4.0"/>
															</Node>
														</Node>
														<Node score="35192.65">
															<SimplePredicate field="double(0)" operator="lessOrEqual" value="201856.0"/>
														</Node>
													</Node>
													<Node score="35314.68">
														<SimplePredicate field="double(1)" operator="lessOrEqual" value="3.5"/>
														<Node score="32484.94">
															<SimplePredicate field="double(0)" operator="lessOrEqual" value="201902.5"/>
														</Node>
													</Node>
													<Node score="36007.14">
														<SimplePredicate field="double(1)" operator="lessOrEqual" value="5.5"/>
														<Node score="38058.11">
															<SimplePredicate field="double(0)" operator="lessOrEqual" value="201902.5"/>
														</Node>
														<Node score="35906.07">
															<SimplePredicate field="double(1)" operator="lessOrEqual" value="4.5"/>
														</Node>
													</Node>
													<Node score="35408.01">
														<SimplePredicate field="double(0)" operator="lessOrEqual" value="201902.5"/>
													</Node>
												</Node>
												<Node score="25736.79">
													<SimplePredicate field="double(1)" operator="lessOrEqual" value="3.5"/>
													<Node score="25012.04">
														<SimplePredicate field="double(1)" operator="lessOrEqual" value="2.5"/>
														<Node score="44675.0">
															<SimplePredicate field="double(0)" operator="lessOrEqual" value="201907.5"/>
															<Node score="36200.24">
																<SimplePredicate field="double(0)" operator="lessOrEqual" value="201906.0"/>
																<Node score="31641.71">
																	<SimplePredicate field="double(0)" operator="lessOrEqual" value="201904.5"/>
																</Node>
															</Node>
														</Node>
														<Node score="31476.2">
															<SimplePredicate field="double(0)" operator="lessOrEqual" value="201908.5"/>
														</Node>
													</Node>
													<Node score="23277.71">
														<SimplePredicate field="double(0)" operator="lessOrEqual" value="201906.5"/>
														<Node score="33404.3">
															<SimplePredicate field="double(0)" operator="lessOrEqual" value="201905.0"/>
														</Node>
													</Node>
													<Node score="33611.51">
														<SimplePredicate field="double(0)" operator="lessOrEqual" value="201908.5"/>
														<Node score="32709.22">
															<SimplePredicate field="double(0)" operator="lessOrEqual" value="201907.5"/>
														</Node>
													</Node>
												</Node>
												<Node score="36350.34">
													<SimplePredicate field="double(0)" operator="lessOrEqual" value="201908.5"/>
													<Node score="34632.21">
														<SimplePredicate field="double(1)" operator="lessOrEqual" value="4.5"/>
														<Node score="31754.81">
															<SimplePredicate field="double(0)" operator="lessOrEqual" value="201904.5"/>
														</Node>
														<Node score="41626.52">
															<SimplePredicate field="double(0)" operator="lessOrEqual" value="201907.5"/>
															<Node score="35183.8">
																<SimplePredicate field="double(0)" operator="lessOrEqual" value="201906.0"/>
															</Node>
														</Node>
													</Node>
													<Node score="37818.18">
														<SimplePredicate field="double(0)" operator="lessOrEqual" value="201906.5"/>
														<Node score="28546.73">
															<SimplePredicate field="double(0)" operator="lessOrEqual" value="201905.5"/>
															<Node score="34958.03">
																<SimplePredicate field="double(0)" operator="lessOrEqual" value="201904.5"/>
																<Node score="32296.03">
																	<SimplePredicate field="double(1)" operator="lessOrEqual" value="5.5"/>
																</Node>
															</Node>
														</Node>
														<Node score="39150.34">
															<SimplePredicate field="double(1)" operator="lessOrEqual" value="5.5"/>
														</Node>
													</Node>
													<Node score="29588.66">
														<SimplePredicate field="double(0)" operator="lessOrEqual" value="201907.5"/>
														<Node score="30434.48">
															<SimplePredicate field="double(1)" operator="lessOrEqual" value="5.5"/>
														</Node>
													</Node>
												</Node>
												<Node score="43643.44">
													<SimplePredicate field="double(1)" operator="lessOrEqual" value="5.5"/>
												</Node>
											</Node>
											<Node score="40076.35">
												<SimplePredicate field="double(0)" operator="lessOrEqual" value="201911.5"/>
												<Node score="37562.11">
													<SimplePredicate field="double(1)" operator="lessOrEqual" value="5.5"/>
													<Node score="38882.85">
														<SimplePredicate field="double(1)" operator="lessOrEqual" value="2.5"/>
													</Node>
													<Node score="36692.48">
														<SimplePredicate field="double(1)" operator="lessOrEqual" value="4.0"/>
														<Node score="35953.49">
															<SimplePredicate field="double(0)" operator="lessOrEqual" value="201910.5"/>
														</Node>
													</Node>
												</Node>
											</Node>
											<Node score="32984.99">
												<SimplePredicate field="double(1)" operator="lessOrEqual" value="3.5"/>
												<Node score="34516.4">
													<SimplePredicate field="double(0)" operator="lessOrEqual" value="201956.5"/>
												</Node>
												<Node score="38510.54">
													<SimplePredicate field="double(0)" operator="lessOrEqual" value="202003.5"/>
													<Node score="40442.21">
														<SimplePredicate field="double(0)" operator="lessOrEqual" value="202001.5"/>
														<Node score="34208.81">
															<SimplePredicate field="double(1)" operator="lessOrEqual" value="2.5"/>
														</Node>
													</Node>
													<Node score="42866.15">
														<SimplePredicate field="double(0)" operator="lessOrEqual" value="202002.5"/>
													</Node>
												</Node>
												<Node score="26854.94">
													<SimplePredicate field="double(0)" operator="lessOrEqual" value="202004.5"/>
												</Node>
												<Node score="43820.35">
													<SimplePredicate field="double(0)" operator="lessOrEqual" value="202005.5"/>
												</Node>
												<Node score="36249.68">
													<SimplePredicate field="double(1)" operator="lessOrEqual" value="2.5"/>
													<Node score="34828.39">
														<SimplePredicate field="double(0)" operator="lessOrEqual" value="202006.5"/>
													</Node>
												</Node>
											</Node>
											<Node score="36649.38">
												<SimplePredicate field="double(1)" operator="lessOrEqual" value="4.5"/>
												<Node score="39703.37">
													<SimplePredicate field="double(0)" operator="lessOrEqual" value="202003.0"/>
													<Node score="33341.49">
														<SimplePredicate field="double(0)" operator="lessOrEqual" value="202001.5"/>
													</Node>
												</Node>
												<Node score="27803.08">
													<SimplePredicate field="double(0)" operator="lessOrEqual" value="202006.5"/>
													<Node score="31903.51">
														<SimplePredicate field="double(0)" operator="lessOrEqual" value="202005.5"/>
														<Node score="31148.41">
															<SimplePredicate field="double(0)" operator="lessOrEqual" value="202004.5"/>
														</Node>
													</Node>
												</Node>
											</Node>
											<Node score="25941.8">
												<SimplePredicate field="double(0)" operator="lessOrEqual" value="202002.5"/>
												<Node score="35223.75">
													<SimplePredicate field="double(0)" operator="lessOrEqual" value="202001.5"/>
													<Node score="32201.53">
														<SimplePredicate field="double(0)" operator="lessOrEqual" value="201956.5"/>
													</Node>
												</Node>
											</Node>
											<Node score="34962.99">
												<SimplePredicate field="double(0)" operator="lessOrEqual" value="202004.5"/>
												<Node score="41146.04">
													<SimplePredicate field="double(1)" operator="lessOrEqual" value="5.5"/>
												</Node>
												<Node score="37459.03">
													<SimplePredicate field="double(0)" operator="lessOrEqual" value="202003.5"/>
												</Node>
											</Node>
											<Node score="37268.04">
												<SimplePredicate field="double(1)" operator="lessOrEqual" value="5.5"/>
												<Node score="35848.64">
													<SimplePredicate field="double(0)" operator="lessOrEqual" value="202005.5"/>
												</Node>
												<Node score="36748.59">
													<SimplePredicate field="double(0)" operator="lessOrEqual" value="202006.5"/>
												</Node>
											</Node>
											<Node score="35706.36">
												<SimplePredicate field="double(0)" operator="lessOrEqual" value="202006.5"/>
												<Node score="34261.9">
													<SimplePredicate field="double(0)" operator="lessOrEqual" value="202005.5"/>
												</Node>
											</Node>
										</Node>
										<Node score="29147.71">
											<SimplePredicate field="double(1)" operator="lessOrEqual" value="1.5"/>
											<Node score="24802.74">
												<SimplePredicate field="double(0)" operator="lessOrEqual" value="202008.5"/>
											</Node>
										</Node>
										<Node score="26191.75">
											<SimplePredicate field="double(1)" operator="lessOrEqual" value="3.5"/>
											<Node score="40419.87">
												<SimplePredicate field="double(1)" operator="lessOrEqual" value="2.5"/>
												<Node score="31383.79">
													<SimplePredicate field="double(0)" operator="lessOrEqual" value="202008.5"/>
												</Node>
											</Node>
										</Node>
										<Node score="40097.94">
											<SimplePredicate field="double(1)" operator="lessOrEqual" value="4.5"/>
											<Node score="37168.42">
												<SimplePredicate field="double(0)" operator="lessOrEqual" value="202008.5"/>
											</Node>
										</Node>
										<Node score="35756.34">
											<SimplePredicate field="double(1)" operator="lessOrEqual" value="5.5"/>
											<Node score="31556.7">
												<SimplePredicate field="double(0)" operator="lessOrEqual" value="202008.5"/>
											</Node>
										</Node>
										<Node score="39794.95">
											<SimplePredicate field="double(0)" operator="lessOrEqual" value="202008.5"/>
										</Node>
									</Node>
									<Node score="40174.6">
										<SimplePredicate field="double(1)" operator="lessOrEqual" value="4.5"/>
										<Node score="21395.29">
											<SimplePredicate field="double(0)" operator="lessOrEqual" value="202011.5"/>
											<Node score="39859.47">
												<SimplePredicate field="double(1)" operator="lessOrEqual" value="1.5"/>
											</Node>
											<Node score="41141.04">
												<SimplePredicate field="double(0)" operator="lessOrEqual" value="202010.5"/>
											</Node>
											<Node score="32962.03">
												<SimplePredicate field="double(1)" operator="lessOrEqual" value="3.0"/>
											</Node>
										</Node>
										<Node score="37202.74">
											<SimplePredicate field="double(1)" operator="lessOrEqual" value="3.5"/>
											<Node score="36987.25">
												<SimplePredicate field="double(0)" operator="lessOrEqual" value="202056.5"/>
											</Node>
											<Node score="43453.42">
												<SimplePredicate field="double(0)" operator="lessOrEqual" value="202102.5"/>
												<Node score="42426.86">
													<SimplePredicate field="double(1)" operator="lessOrEqual" value="2.5"/>
													<Node score="29805.89">
														<SimplePredicate field="double(0)" operator="lessOrEqual" value="202101.5"/>
													</Node>
												</Node>
											</Node>
											<Node score="38927.02">
												<SimplePredicate field="double(1)" operator="lessOrEqual" value="2.5"/>
											</Node>
										</Node>
										<Node score="33892.9">
											<SimplePredicate field="double(0)" operator="lessOrEqual" value="202102.5"/>
											<Node score="40622.93">
												<SimplePredicate field="double(0)" operator="lessOrEqual" value="202057.0"/>
											</Node>
										</Node>
									</Node>
									<Node score="39689.86">
										<SimplePredicate field="double(0)" operator="lessOrEqual" value="202010.5"/>
										<Node score="40163.65">
											<SimplePredicate field="double(1)" operator="lessOrEqual" value="5.5"/>
										</Node>
									</Node>
									<Node score="37027.81">
										<SimplePredicate field="double(0)" operator="lessOrEqual" value="202056.5"/>
										<Node score="32236.37">
											<SimplePredicate field="double(0)" operator="lessOrEqual" value="202011.5"/>
										</Node>
									</Node>
									<Node score="27383.43">
										<SimplePredicate field="double(0)" operator="lessOrEqual" value="202101.5"/>
									</Node>
									<Node score="32319.61">
										<SimplePredicate field="double(1)" operator="lessOrEqual" value="5.5"/>
										<Node score="30472.6">
											<SimplePredicate field="double(0)" operator="lessOrEqual" value="202102.5"/>
										</Node>
									</Node>
									<Node score="35822.26">
										<SimplePredicate field="double(0)" operator="lessOrEqual" value="202102.5"/>
									</Node>
								</Node>
								<Node score="39479.92">
									<SimplePredicate field="double(1)" operator="lessOrEqual" value="1.5"/>
								</Node>
								<Node score="26599.8">
									<SimplePredicate field="double(1)" operator="lessOrEqual" value="5.0"/>
									<Node score="26868.87">
										<SimplePredicate field="double(0)" operator="lessOrEqual" value="202104.5"/>
									</Node>
								</Node>
								<Node score="32649.77">
									<SimplePredicate field="double(0)" operator="lessOrEqual" value="202104.5"/>
								</Node>
							</Node>
							<Node score="31672.25">
								<SimplePredicate field="double(1)" operator="lessOrEqual" value="4.5"/>
								<Node score="46505.28">
									<SimplePredicate field="double(0)" operator="lessOrEqual" value="202110.5"/>
									<Node score="30254.26">
										<SimplePredicate field="double(1)" operator="lessOrEqual" value="1.5"/>
										<Node score="29797.04">
											<SimplePredicate field="double(0)" operator="lessOrEqual" value="202106.5"/>
										</Node>
										<Node score="37440.16">
											<SimplePredicate field="double(0)" operator="lessOrEqual" value="202108.5"/>
										</Node>
									</Node>
									<Node score="31085.19">
										<SimplePredicate field="double(0)" operator="lessOrEqual" value="202109.5"/>
										<Node score="34279.37">
											<SimplePredicate field="double(1)" operator="lessOrEqual" value="3.5"/>
											<Node score="41373.7">
												<SimplePredicate field="double(1)" operator="lessOrEqual" value="2.5"/>
												<Node score="39069.89">
													<SimplePredicate field="double(0)" operator="lessOrEqual" value="202108.0"/>
												</Node>
											</Node>
											<Node score="37649.02">
												<SimplePredicate field="double(0)" operator="lessOrEqual" value="202108.5"/>
												<Node score="40410.13">
													<SimplePredicate field="double(0)" operator="lessOrEqual" value="202107.0"/>
												</Node>
											</Node>
										</Node>
									</Node>
								</Node>
								<Node score="43171.49">
									<SimplePredicate field="double(1)" operator="lessOrEqual" value="3.5"/>
									<Node score="31139.319999999996">
										<SimplePredicate field="double(1)" operator="lessOrEqual" value="2.5"/>
										<Node score="36559.69">
											<SimplePredicate field="double(1)" operator="lessOrEqual" value="1.5"/>
										</Node>
									</Node>
								</Node>
							</Node>
							<Node score="42094.42">
								<SimplePredicate field="double(0)" operator="lessOrEqual" value="202107.5"/>
								<Node score="40261.12">
									<SimplePredicate field="double(1)" operator="lessOrEqual" value="5.5"/>
									<Node score="33868.45">
										<SimplePredicate field="double(0)" operator="lessOrEqual" value="202106.5"/>
									</Node>
								</Node>
							</Node>
							<Node score="27044.62">
								<SimplePredicate field="double(1)" operator="lessOrEqual" value="5.5"/>
								<Node score="30256.04">
									<SimplePredicate field="double(0)" operator="lessOrEqual" value="202109.5"/>
								</Node>
							</Node>
							<Node score="33623.59">
								<SimplePredicate field="double(0)" operator="lessOrEqual" value="202109.0"/>
							</Node>
							<Node score="38329.6">
								<SimplePredicate field="double(0)" operator="lessOrEqual" value="202110.5"/>
							</Node>
						</Node>
					</Node>
				</TreeModel>
			</Segment>
			<Segment id="2">
				<True/>
				<TreeModel functionName="regression" algorithmName="sklearn.tree._classes.DecisionTreeRegressor" missingValueStrategy="nullPrediction" noTrueChildStrategy="returnLastPrediction">
					<MiningSchema>
						<MiningField name="double(0)"/>
						<MiningField name="double(1)"/>
					</MiningSchema>
					<Node score="35101.26">
						<True/>
						<Node score="22364.0">
							<SimplePredicate field="double(1)" operator="lessOrEqual" value="5.5"/>
							<Node score="27044.62">
								<SimplePredicate field="double(0)" operator="lessOrEqual" value="202111.5"/>
								<Node score="34134.11">
									<SimplePredicate field="double(0)" operator="lessOrEqual" value="201808.5"/>
									<Node score="34071.42">
										<SimplePredicate field="double(0)" operator="lessOrEqual" value="201806.5"/>
										<Node score="31684.63">
											<SimplePredicate field="double(0)" operator="lessOrEqual" value="201602.5"/>
											<Node score="32458.36">
												<SimplePredicate field="double(0)" operator="lessOrEqual" value="201601.5"/>
												<Node score="38204.55">
													<SimplePredicate field="double(1)" operator="lessOrEqual" value="4.5"/>
													<Node score="39724.29">
														<SimplePredicate field="double(1)" operator="lessOrEqual" value="2.5"/>
													</Node>
													<Node score="37667.41">
														<SimplePredicate field="double(1)" operator="lessOrEqual" value="3.5"/>
													</Node>
												</Node>
											</Node>
											<Node score="33877.34">
												<SimplePredicate field="double(1)" operator="lessOrEqual" value="3.5"/>
												<Node score="33125.31">
													<SimplePredicate field="double(1)" operator="lessOrEqual" value="1.5"/>
												</Node>
												<Node score="33950.48">
													<SimplePredicate field="double(1)" operator="lessOrEqual" value="2.5"/>
												</Node>
											</Node>
											<Node score="30492.62">
												<SimplePredicate field="double(1)" operator="lessOrEqual" value="4.5"/>
											</Node>
										</Node>
										<Node score="36159.59">
											<SimplePredicate field="double(0)" operator="lessOrEqual" value="201603.5"/>
											<Node score="38387.85">
												<SimplePredicate field="double(1)" operator="lessOrEqual" value="4.5"/>
												<Node score="35308.1">
													<SimplePredicate field="double(1)" operator="lessOrEqual" value="3.0"/>
													<Node score="38604.29">
														<SimplePredicate field="double(1)" operator="lessOrEqual" value="1.5"/>
													</Node>
												</Node>
											</Node>
										</Node>
										<Node score="29031.47">
											<SimplePredicate field="double(0)" operator="lessOrEqual" value="201608.5"/>
											<Node score="39444.82">
												<SimplePredicate field="double(1)" operator="lessOrEqual" value="2.5"/>
												<Node score="27144.55">
													<SimplePredicate field="double(0)" operator="lessOrEqual" value="201607.5"/>
													<Node score="39834.96">
														<SimplePredicate field="double(1)" operator="lessOrEqual" value="1.5"/>
														<Node score="32690.539999999997">
															<SimplePredicate field="double(0)" operator="lessOrEqual" value="201606.5"/>
															<Node score="32094.74">
																<SimplePredicate field="double(0)" operator="lessOrEqual" value="201605.0"/>
															</Node>
														</Node>
													</Node>
													<Node score="39198.89">
														<SimplePredicate field="double(0)" operator="lessOrEqual" value="201606.5"/>
														<Node score="27359.0">
															<SimplePredicate field="double(0)" operator="lessOrEqual" value="201605.5"/>
															<Node score="34221.28">
																<SimplePredicate field="double(0)" operator="lessOrEqual" value="201604.5"/>
															</Node>
														</Node>
													</Node>
												</Node>
												<Node score="30783.63">
													<SimplePredicate field="double(1)" operator="lessOrEqual" value="1.5"/>
												</Node>
											</Node>
											<Node score="42879.37">
												<SimplePredicate field="double(0)" operator="lessOrEqual" value="201606.0"/>
												<Node score="42873.92">
													<SimplePredicate field="double(1)" operator="lessOrEqual" value="3.5"/>
												</Node>
												<Node score="37470.54">
													<SimplePredicate field="double(1)" operator="lessOrEqual" value="4.5"/>
													<Node score="32174.94">
														<SimplePredicate field="double(0)" operator="lessOrEqual" value="201604.5"/>
													</Node>
												</Node>
											</Node>
											<Node score="34330.55">
												<SimplePredicate field="double(1)" operator="lessOrEqual" value="4.5"/>
												<Node score="40891.95">
													<SimplePredicate field="double(0)" operator="lessOrEqual" value="201607.5"/>
												</Node>
											</Node>
											<Node score="33510.86">
												<SimplePredicate field="double(0)" operator="lessOrEqual" value="201607.5"/>
											</Node>
										</Node>
										<Node score="41047.8">
											<SimplePredicate field="double(0)" operator="lessOrEqual" value="201609.5"/>
											<Node score="35957.09">
												<SimplePredicate field="double(1)" operator="lessOrEqual" value="2.5"/>
											</Node>
										</Node>
										<Node score="27809.33">
											<SimplePredicate field="double(0)" operator="lessOrEqual" value="201610.5"/>
											<Node score="32102.47">
												<SimplePredicate field="double(1)" operator="lessOrEqual" value="4.5"/>
											</Node>
										</Node>
										<Node score="28965.94">
											<SimplePredicate field="double(0)" operator="lessOrEqual" value="201703.5"/>
											<Node score="35511.84">
												<SimplePredicate field="double(1)" operator="lessOrEqual" value="2.5"/>
												<Node score="33783.01">
													<SimplePredicate field="double(0)" operator="lessOrEqual" value="201656.5"/>
													<Node score="37499.12">
														<SimplePredicate field="double(0)" operator="lessOrEqual" value="201611.5"/>
														<Node score="36049.16">
															<SimplePredicate field="double(1)" operator="lessOrEqual" value="1.5"/>
														</Node>
													</Node>
												</Node>
												<Node score="41926.95">
													<SimplePredicate field="double(0)" operator="lessOrEqual" value="201702.5"/>
													<Node score="39997.03">
														<SimplePredicate field="double(1)" operator="lessOrEqual" value="1.5"/>
													</Node>
													<Node score="41898.77">
														<SimplePredicate field="double(0)" operator="lessOrEqual" value="201701.5"/>
													</Node>
												</Node>
												<Node score="40925.52">
													<SimplePredicate field="double(1)" operator="lessOrEqual" value="1.5"/>
												</Node>
											</Node>
											<Node score="40194.01">
												<SimplePredicate field="double(0)" operator="lessOrEqual" value="201702.5"/>
												<Node score="34803.52">
													<SimplePredicate field="double(1)" operator="lessOrEqual" value="4.5"/>
													<Node score="29659.63">
														<SimplePredicate field="double(0)" operator="lessOrEqual" value="201611.5"/>
														<Node score="31576.21">
															<SimplePredicate field="double(1)" operator="lessOrEqual" value="3.5"/>
														</Node>
													</Node>
													<Node score="42663.52">
														<SimplePredicate field="double(0)" operator="lessOrEqual" value="201656.5"/>
													</Node>
													<Node score="35357.13">
														<SimplePredicate field="double(0)" operator="lessOrEqual" value="201701.5"/>
													</Node>
												</Node>
											</Node>
										</Node>
										<Node score="39482.55">
											<SimplePredicate field="double(0)" operator="lessOrEqual" value="201711.5"/>
											<Node score="34040.56">
												<SimplePredicate field="double(0)" operator="lessOrEqual" value="201707.5"/>
												<Node score="33787.02">
													<SimplePredicate field="double(0)" operator="lessOrEqual" value="201706.5"/>
													<Node score="33231.17">
														<SimplePredicate field="double(1)" operator="lessOrEqual" value="1.5"/>
													</Node>
													<Node score="34187.34">
														<SimplePredicate field="double(1)" operator="lessOrEqual" value="4.0"/>
														<Node score="39326.99">
															<SimplePredicate field="double(0)" operator="lessOrEqual" value="201704.5"/>
															<Node score="36156.21">
																<SimplePredicate field="double(1)" operator="lessOrEqual" value="2.5"/>
															</Node>
														</Node>
														<Node score="34929.0">
															<SimplePredicate field="double(1)" operator="lessOrEqual" value="2.5"/>
															<Node score="34388.58">
																<SimplePredicate field="double(0)" operator="lessOrEqual" value="201705.5"/>
															</Node>
														</Node>
														<Node score="35077.47">
															<SimplePredicate field="double(0)" operator="lessOrEqual" value="201705.5"/>
														</Node>
													</Node>
													<Node score="27439.07">
														<SimplePredicate field="double(0)" operator="lessOrEqual" value="201704.5"/>
													</Node>
													<Node score="37298.02">
														<SimplePredicate field="double(0)" operator="lessOrEqual" value="201705.5"/>
													</Node>
												</Node>
												<Node score="44083.31">
													<SimplePredicate field="double(1)" operator="lessOrEqual" value="4.5"/>
													<Node score="35837.19">
														<SimplePredicate field="double(1)" operator="lessOrEqual" value="3.5"/>
													</Node>
												</Node>
											</Node>
											<Node score="29991.64">
												<SimplePredicate field="double(1)" operator="lessOrEqual" value="4.5"/>
												<Node score="38213.53">
													<SimplePredicate field="double(1)" operator="lessOrEqual" value="1.5"/>
												</Node>
												<Node score="29598.85">
													<SimplePredicate field="double(0)" operator="lessOrEqual" value="201708.5"/>
													<Node score="23710.49">
														<SimplePredicate field="double(1)" operator="lessOrEqual" value="2.5"/>
													</Node>
												</Node>
												<Node score="38889.15">
													<SimplePredicate field="double(0)" operator="lessOrEqual" value="201710.5"/>
													<Node score="29270.49">
														<SimplePredicate field="double(1)" operator="lessOrEqual" value="3.5"/>
														<Node score="35203.44">
															<SimplePredicate field="double(0)" operator="lessOrEqual" value="201709.5"/>
															<Node score="32224.85">
																<SimplePredicate field="double(1)" operator="lessOrEqual" value="2.5"/>
															</Node>
														</Node>
													</Node>
												</Node>
											</Node>
											<Node score="37989.58">
												<SimplePredicate field="double(0)" operator="lessOrEqual" value="201709.5"/>
											</Node>
										</Node>
										<Node score="34416.61">
											<SimplePredicate field="double(0)" operator="lessOrEqual" value="201803.5"/>
											<Node score="35250.52">
												<SimplePredicate field="double(1)" operator="lessOrEqual" value="4.5"/>
												<Node score="34908.03">
													<SimplePredicate field="double(0)" operator="lessOrEqual" value="201801.5"/>
													<Node score="31141.01">
														<SimplePredicate field="double(1)" operator="lessOrEqual" value="1.5"/>
														<Node score="24692.19">
															<SimplePredicate field="double(0)" operator="lessOrEqual" value="201756.5"/>
														</Node>
													</Node>
													<Node score="30128.28">
														<SimplePredicate field="double(1)" operator="lessOrEqual" value="3.5"/>
														<Node score="39314.0">
															<SimplePredicate field="double(1)" operator="lessOrEqual" value="2.5"/>
															<Node score="32725.97">
																<SimplePredicate field="double(0)" operator="lessOrEqual" value="201756.5"/>
															</Node>
														</Node>
													</Node>
													<Node score="40677.01">
														<SimplePredicate field="double(0)" operator="lessOrEqual" value="201756.5"/>
													</Node>
												</Node>
												<Node score="38336.95">
													<SimplePredicate field="double(1)" operator="lessOrEqual" value="3.5"/>
													<Node score="46062.83">
														<SimplePredicate field="double(0)" operator="lessOrEqual" value="201802.5"/>
													</Node>
													<Node score="39056.87">
														<SimplePredicate field="double(1)" operator="lessOrEqual" value="1.5"/>
													</Node>
													<Node score="37378.37">
														<SimplePredicate field="double(1)" operator="lessOrEqual" value="2.5"/>
													</Node>
												</Node>
												<Node score="34161.34">
													<SimplePredicate field="double(0)" operator="lessOrEqual" value="201802.5"/>
												</Node>
											</Node>
											<Node score="39875.87">
												<SimplePredicate field="double(0)" operator="lessOrEqual" value="201801.5"/>
												<Node score="44128.37">
													<SimplePredicate field="double(0)" operator="lessOrEqual" value="201756.5"/>
												</Node>
											</Node>
											<Node score="36443.44">
												<SimplePredicate field="double(0)" operator="lessOrEqual" value="201802.5"/>
											</Node>
										</Node>
										<Node score="31746.65">
											<SimplePredicate field="double(1)" operator="lessOrEqual" value="3.5"/>
											<Node score="37799.97">
												<SimplePredicate field="double(1)" operator="lessOrEqual" value="1.5"/>
												<Node score="33075.29">
													<SimplePredicate field="double(0)" operator="lessOrEqual" value="201805.5"/>
													<Node score="31309.65">
														<SimplePredicate field="double(0)" operator="lessOrEqual" value="201804.5"/>
													</Node>
												</Node>
											</Node>
											<Node score="36938.07">
												<SimplePredicate field="double(0)" operator="lessOrEqual" value="201805.5"/>
												<Node score="39184.31">
													<SimplePredicate field="double(0)" operator="lessOrEqual" value="201804.5"/>
													<Node score="30533.64">
														<SimplePredicate field="double(1)" operator="lessOrEqual" value="2.5"/>
													</Node>
												</Node>
												<Node score="41804.22">
													<SimplePredicate field="double(1)" operator="lessOrEqual" value="2.5"/>
												</Node>
											</Node>
										</Node>
										<Node score="37484.79">
											<SimplePredicate field="double(0)" operator="lessOrEqual" value="201804.5"/>
										</Node>
										<Node score="28223.03">
											<SimplePredicate field="double(1)" operator="lessOrEqual" value="4.5"/>
										</Node>
									</Node>
									<Node score="47869.74">
										<SimplePredicate field="double(1)" operator="lessOrEqual" value="4.5"/>
										<Node score="34881.85">
											<SimplePredicate field="double(1)" operator="lessOrEqual" value="1.5"/>
											<Node score="37292.72">
												<SimplePredicate field="double(0)" operator="lessOrEqual" value="201807.5"/>
											</Node>
										</Node>
										<Node score="46553.52">
											<SimplePredicate field="double(1)" operator="lessOrEqual" value="3.0"/>
										</Node>
									</Node>
								</Node>
								<Node score="40252.66">
									<SimplePredicate field="double(0)" operator="lessOrEqual" value="202106.5"/>
									<Node score="31085.19">
										<SimplePredicate field="double(1)" operator="lessOrEqual" value="4.5"/>
										<Node score="36981.29">
											<SimplePredicate field="double(0)" operator="lessOrEqual" value="202003.5"/>
											<Node score="36530.67">
												<SimplePredicate field="double(0)" operator="lessOrEqual" value="201909.5"/>
												<Node score="34632.21">
													<SimplePredicate field="double(0)" operator="lessOrEqual" value="201908.5"/>
													<Node score="35183.8">
														<SimplePredicate field="double(0)" operator="lessOrEqual" value="201905.5"/>
														<Node score="32117.41">
															<SimplePredicate field="double(1)" operator="lessOrEqual" value="1.5"/>
															<Node score="39788.68">
																<SimplePredicate field="double(0)" operator="lessOrEqual" value="201903.5"/>
																<Node score="36157.8">
																	<SimplePredicate field="double(0)" operator="lessOrEqual" value="201856.5"/>
																	<Node score="38446.36">
																		<SimplePredicate field="double(0)" operator="lessOrEqual" value="201810.0"/>
																	</Node>
																</Node>
															</Node>
														</Node>
														<Node score="31754.81">
															<SimplePredicate field="double(0)" operator="lessOrEqual" value="201904.5"/>
															<Node score="32757.46">
																<SimplePredicate field="double(0)" operator="lessOrEqual" value="201809.5"/>
																<Node score="28885.53">
																	<SimplePredicate field="double(1)" operator="lessOrEqual" value="2.5"/>
																</Node>
																<Node score="37302.3">
																	<SimplePredicate field="double(1)" operator="lessOrEqual" value="3.5"/>
																</Node>
															</Node>
															<Node score="40338.43">
																<SimplePredicate field="double(0)" operator="lessOrEqual" value="201810.5"/>
																<Node score="37480.95">
																	<SimplePredicate field="double(1)" operator="lessOrEqual" value="3.5"/>
																</Node>
															</Node>
															<Node score="35314.68">
																<SimplePredicate field="double(1)" operator="lessOrEqual" value="3.5"/>
																<Node score="39153.43">
																	<SimplePredicate field="double(0)" operator="lessOrEqual" value="201901.5"/>
																	<Node score="25971.58">
																		<SimplePredicate field="double(0)" operator="lessOrEqual" value="201811.5"/>
																		<Node score="36207.3">
																			<SimplePredicate field="double(1)" operator="lessOrEqual" value="2.5"/>
																		</Node>
																	</Node>
																	<Node score="37491.1">
																		<SimplePredicate field="double(1)" operator="lessOrEqual" value="2.5"/>
																	</Node>
																</Node>
																<Node score="31641.71">
																	<SimplePredicate field="double(1)" operator="lessOrEqual" value="2.5"/>
																	<Node score="30867.01">
																		<SimplePredicate field="double(0)" operator="lessOrEqual" value="201903.5"/>
																		<Node score="30812.71">
																			<SimplePredicate field="double(0)" operator="lessOrEqual" value="201902.5"/>
																		</Node>
																	</Node>
																</Node>
																<Node score="32484.94">
																	<SimplePredicate field="double(0)" operator="lessOrEqual" value="201902.5"/>
																</Node>
															</Node>
															<Node score="28416.54">
																<SimplePredicate field="double(0)" operator="lessOrEqual" value="201857.5"/>
															</Node>
															<Node score="35906.07">
																<SimplePredicate field="double(0)" operator="lessOrEqual" value="201903.5"/>
															</Node>
														</Node>
														<Node score="37079.02">
															<SimplePredicate field="double(1)" operator="lessOrEqual" value="3.5"/>
															<Node score="36200.24">
																<SimplePredicate field="double(1)" operator="lessOrEqual" value="2.5"/>
															</Node>
														</Node>
													</Node>
													<Node score="32709.22">
														<SimplePredicate field="double(1)" operator="lessOrEqual" value="3.5"/>
														<Node score="30608.17">
															<SimplePredicate field="double(1)" operator="lessOrEqual" value="2.5"/>
															<Node score="36214.17">
																<SimplePredicate field="double(0)" operator="lessOrEqual" value="201906.5"/>
																<Node score="33916.64">
																	<SimplePredicate field="double(1)" operator="lessOrEqual" value="1.5"/>
																</Node>
															</Node>
														</Node>
														<Node score="23277.71">
															<SimplePredicate field="double(0)" operator="lessOrEqual" value="201906.5"/>
														</Node>
													</Node>
													<Node score="37727.68">
														<SimplePredicate field="double(0)" operator="lessOrEqual" value="201907.0"/>
													</Node>
												</Node>
												<Node score="36754.77">
													<SimplePredicate field="double(1)" operator="lessOrEqual" value="1.5"/>
												</Node>
												<Node score="25736.79">
													<SimplePredicate field="double(1)" operator="lessOrEqual" value="3.5"/>
													<Node score="25012.04">
														<SimplePredicate field="double(1)" operator="lessOrEqual" value="2.5"/>
													</Node>
												</Node>
											</Node>
											<Node score="33341.49">
												<SimplePredicate field="double(0)" operator="lessOrEqual" value="202001.5"/>
												<Node score="35507.05">
													<SimplePredicate field="double(1)" operator="lessOrEqual" value="2.5"/>
													<Node score="38882.85">
														<SimplePredicate field="double(0)" operator="lessOrEqual" value="201911.5"/>
														<Node score="35473.19">
															<SimplePredicate field="double(1)" operator="lessOrEqual" value="1.5"/>
															<Node score="34849.79">
																<SimplePredicate field="double(0)" operator="lessOrEqual" value="201910.5"/>
															</Node>
														</Node>
													</Node>
													<Node score="34516.4">
														<SimplePredicate field="double(0)" operator="lessOrEqual" value="201956.5"/>
													</Node>
												</Node>
												<Node score="40442.21">
													<SimplePredicate field="double(1)" operator="lessOrEqual" value="3.5"/>
													<Node score="35953.49">
														<SimplePredicate field="double(0)" operator="lessOrEqual" value="201955.5"/>
													</Node>
												</Node>
												<Node score="37853.15">
													<SimplePredicate field="double(0)" operator="lessOrEqual" value="201956.0"/>
													<Node score="38591.85">
														<SimplePredicate field="double(0)" operator="lessOrEqual" value="201910.5"/>
													</Node>
												</Node>
											</Node>
											<Node score="39703.37">
												<SimplePredicate field="double(0)" operator="lessOrEqual" value="202002.5"/>
												<Node score="35856.92">
													<SimplePredicate field="double(1)" operator="lessOrEqual" value="1.5"/>
												</Node>
												<Node score="42866.15">
													<SimplePredicate field="double(1)" operator="lessOrEqual" value="2.5"/>
												</Node>
												<Node score="37658.08">
													<SimplePredicate field="double(1)" operator="lessOrEqual" value="3.5"/>
												</Node>
											</Node>
											<Node score="29638.9">
												<SimplePredicate field="double(1)" operator="lessOrEqual" value="2.5"/>
											</Node>
											<Node score="38510.54">
												<SimplePredicate field="double(1)" operator="lessOrEqual" value="3.5"/>
											</Node>
										</Node>
										<Node score="43169.3">
											<SimplePredicate field="double(1)" operator="lessOrEqual" value="2.5"/>
											<Node score="46702.08">
												<SimplePredicate field="double(0)" operator="lessOrEqual" value="202004.5"/>
											</Node>
											<Node score="39459.58">
												<SimplePredicate field="double(0)" operator="lessOrEqual" value="202104.5"/>
												<Node score="29805.89">
													<SimplePredicate field="double(0)" operator="lessOrEqual" value="202102.5"/>
													<Node score="24802.74">
														<SimplePredicate field="double(0)" operator="lessOrEqual" value="202008.5"/>
														<Node score="34828.39">
															<SimplePredicate field="double(0)" operator="lessOrEqual" value="202007.0"/>
															<Node score="34946.3">
																<SimplePredicate field="double(0)" operator="lessOrEqual" value="202005.5"/>
															</Node>
															<Node score="34497.68">
																<SimplePredicate field="double(1)" operator="lessOrEqual" value="1.5"/>
															</Node>
														</Node>
													</Node>
													<Node score="32962.03">
														<SimplePredicate field="double(0)" operator="lessOrEqual" value="202056.0"/>
														<Node score="40419.87">
															<SimplePredicate field="double(0)" operator="lessOrEqual" value="202009.5"/>
														</Node>
														<Node score="39859.47">
															<SimplePredicate field="double(1)" operator="lessOrEqual" value="1.5"/>
															<Node score="33152.65">
																<SimplePredicate field="double(0)" operator="lessOrEqual" value="202010.5"/>
															</Node>
														</Node>
														<Node score="36093.98">
															<SimplePredicate field="double(0)" operator="lessOrEqual" value="202010.5"/>
														</Node>
													</Node>
													<Node score="31869.07">
														<SimplePredicate field="double(1)" operator="lessOrEqual" value="1.5"/>
														<Node score="32702.09">
															<SimplePredicate field="double(0)" operator="lessOrEqual" value="202101.5"/>
														</Node>
													</Node>
												</Node>
												<Node score="38927.02">
													<SimplePredicate field="double(0)" operator="lessOrEqual" value="202103.5"/>
													<Node score="42762.9">
														<SimplePredicate field="double(1)" operator="lessOrEqual" value="1.5"/>
													</Node>
												</Node>
												<Node score="35989.95">
													<SimplePredicate field="double(1)" operator="lessOrEqual" value="1.5"/>
												</Node>
											</Node>
											<Node score="26599.8">
												<SimplePredicate field="double(0)" operator="lessOrEqual" value="202105.5"/>
											</Node>
											<Node score="29797.04">
												<SimplePredicate field="double(1)" operator="lessOrEqual" value="1.5"/>
											</Node>
										</Node>
										<Node score="26854.94">
											<SimplePredicate field="double(0)" operator="lessOrEqual" value="202004.5"/>
										</Node>
										<Node score="21395.29">
											<SimplePredicate field="double(0)" operator="lessOrEqual" value="202011.5"/>
											<Node score="41141.04">
												<SimplePredicate field="double(0)" operator="lessOrEqual" value="202010.5"/>
												<Node score="26191.75">
													<SimplePredicate field="double(0)" operator="lessOrEqual" value="202009.5"/>
													<Node score="37697.69">
														<SimplePredicate field="double(0)" operator="lessOrEqual" value="202008.5"/>
														<Node score="27803.08">
															<SimplePredicate field="double(0)" operator="lessOrEqual" value="202006.5"/>
															<Node score="31903.51">
																<SimplePredicate field="double(0)" operator="lessOrEqual" value="202005.5"/>
															</Node>
														</Node>
														<Node score="36649.38">
															<SimplePredicate field="double(0)" operator="lessOrEqual" value="202007.5"/>
															<Node score="32984.99">
																<SimplePredicate field="double(1)" operator="lessOrEqual" value="3.5"/>
															</Node>
														</Node>
													</Node>
												</Node>
											</Node>
										</Node>
										<Node score="39071.13">
											<SimplePredicate field="double(0)" operator="lessOrEqual" value="202101.5"/>
											<Node score="36987.25">
												<SimplePredicate field="double(1)" operator="lessOrEqual" value="3.5"/>
											</Node>
										</Node>
										<Node score="26868.87">
											<SimplePredicate field="double(0)" operator="lessOrEqual" value="202104.5"/>
											<Node score="40174.6">
												<SimplePredicate field="double(0)" operator="lessOrEqual" value="202103.5"/>
												<Node score="27217.41">
													<SimplePredicate field="double(1)" operator="lessOrEqual" value="3.5"/>
												</Node>
												<Node score="33892.9">
													<SimplePredicate field="double(0)" operator="lessOrEqual" value="202102.5"/>
												</Node>
											</Node>
										</Node>
										<Node score="38624.49">
											<SimplePredicate field="double(0)" operator="lessOrEqual" value="202105.5"/>
											<Node score="29548.33">
												<SimplePredicate field="double(1)" operator="lessOrEqual" value="3.5"/>
											</Node>
										</Node>
									</Node>
									<Node score="35223.75">
										<SimplePredicate field="double(0)" operator="lessOrEqual" value="202002.5"/>
										<Node score="36007.14">
											<SimplePredicate field="double(0)" operator="lessOrEqual" value="201903.5"/>
											<Node score="34937.77">
												<SimplePredicate field="double(0)" operator="lessOrEqual" value="201856.5"/>
												<Node score="33615.9">
													<SimplePredicate field="double(0)" operator="lessOrEqual" value="201809.5"/>
												</Node>
												<Node score="35876.91">
													<SimplePredicate field="double(0)" operator="lessOrEqual" value="201810.5"/>
												</Node>
											</Node>
											<Node score="42191.05">
												<SimplePredicate field="double(0)" operator="lessOrEqual" value="201902.5"/>
											</Node>
										</Node>
										<Node score="32613.93">
											<SimplePredicate field="double(0)" operator="lessOrEqual" value="201909.0"/>
											<Node score="28546.73">
												<SimplePredicate field="double(0)" operator="lessOrEqual" value="201905.5"/>
												<Node score="32296.03">
													<SimplePredicate field="double(0)" operator="lessOrEqual" value="201904.5"/>
												</Node>
											</Node>
											<Node score="39150.34">
												<SimplePredicate field="double(0)" operator="lessOrEqual" value="201906.5"/>
											</Node>
											<Node score="30434.48">
												<SimplePredicate field="double(0)" operator="lessOrEqual" value="201907.5"/>
											</Node>
										</Node>
										<Node score="37562.11">
											<SimplePredicate field="double(0)" operator="lessOrEqual" value="201956.0"/>
											<Node score="36173.84">
												<SimplePredicate field="double(0)" operator="lessOrEqual" value="201910.5"/>
											</Node>
										</Node>
									</Node>
									<Node score="39091.08">
										<SimplePredicate field="double(0)" operator="lessOrEqual" value="202101.5"/>
										<Node score="35756.34">
											<SimplePredicate field="double(0)" operator="lessOrEqual" value="202009.5"/>
											<Node score="41146.04">
												<SimplePredicate field="double(0)" operator="lessOrEqual" value="202004.5"/>
											</Node>
											<Node score="36748.59">
												<SimplePredicate field="double(0)" operator="lessOrEqual" value="202007.5"/>
												<Node score="35848.64">
													<SimplePredicate field="double(0)" operator="lessOrEqual" value="202005.5"/>
												</Node>
											</Node>
										</Node>
										<Node score="40536.55">
											<SimplePredicate field="double(0)" operator="lessOrEqual" value="202011.5"/>
											<Node score="40163.65">
												<SimplePredicate field="double(0)" operator="lessOrEqual" value="202010.5"/>
											</Node>
										</Node>
										<Node score="37027.81">
											<SimplePredicate field="double(0)" operator="lessOrEqual" value="202056.5"/>
										</Node>
									</Node>
									<Node score="32319.61">
										<SimplePredicate field="double(0)" operator="lessOrEqual" value="202103.5"/>
										<Node score="30472.6">
											<SimplePredicate field="double(0)" operator="lessOrEqual" value="202102.5"/>
										</Node>
									</Node>
									<Node score="36614.03">
										<SimplePredicate field="double(0)" operator="lessOrEqual" value="202104.5"/>
									</Node>
								</Node>
								<Node score="31672.25">
									<SimplePredicate field="double(1)" operator="lessOrEqual" value="4.5"/>
									<Node score="36559.69">
										<SimplePredicate field="double(1)" operator="lessOrEqual" value="2.5"/>
										<Node score="39069.89">
											<SimplePredicate field="double(0)" operator="lessOrEqual" value="202108.5"/>
											<Node score="37440.16">
												<SimplePredicate field="double(1)" operator="lessOrEqual" value="1.5"/>
											</Node>
										</Node>
										<Node score="29969.43">
											<SimplePredicate field="double(0)" operator="lessOrEqual" value="202110.5"/>
										</Node>
									</Node>
									<Node score="38750.66">
										<SimplePredicate field="double(0)" operator="lessOrEqual" value="202109.5"/>
										<Node score="37929.61">
											<SimplePredicate field="double(0)" operator="lessOrEqual" value="202108.5"/>
											<Node score="39421.26">
												<SimplePredicate field="double(0)" operator="lessOrEqual" value="202107.5"/>
											</Node>
											<Node score="37649.02">
												<SimplePredicate field="double(1)" operator="lessOrEqual" value="3.5"/>
											</Node>
										</Node>
										<Node score="34279.37">
											<SimplePredicate field="double(1)" operator="lessOrEqual" value="3.5"/>
										</Node>
									</Node>
									<Node score="46505.28">
										<SimplePredicate field="double(0)" operator="lessOrEqual" value="202110.5"/>
										<Node score="36480.14">
											<SimplePredicate field="double(1)" operator="lessOrEqual" value="3.5"/>
										</Node>
									</Node>
									<Node score="43171.49">
										<SimplePredicate field="double(1)" operator="lessOrEqual" value="3.5"/>
									</Node>
								</Node>
								<Node score="30256.04">
									<SimplePredicate field="double(0)" operator="lessOrEqual" value="202109.5"/>
								</Node>
							</Node>
						</Node>
						<Node score="28182.5">
							<SimplePredicate field="double(0)" operator="lessOrEqual" value="201756.5"/>
							<Node score="38808.52">
								<SimplePredicate field="double(0)" operator="lessOrEqual" value="201704.5"/>
								<Node score="34385.56">
									<SimplePredicate field="double(0)" operator="lessOrEqual" value="201608.5"/>
									<Node score="34521.59">
										<SimplePredicate field="double(0)" operator="lessOrEqual" value="201606.5"/>
										<Node score="34109.24">
											<SimplePredicate field="double(0)" operator="lessOrEqual" value="201605.5"/>
											<Node score="33740.76">
												<SimplePredicate field="double(0)" operator="lessOrEqual" value="201604.0"/>
											</Node>
										</Node>
									</Node>
									<Node score="30980.16">
										<SimplePredicate field="double(0)" operator="lessOrEqual" value="201607.5"/>
									</Node>
								</Node>
								<Node score="35220.97">
									<SimplePredicate field="double(0)" operator="lessOrEqual" value="201701.5"/>
									<Node score="36168.48">
										<SimplePredicate field="double(0)" operator="lessOrEqual" value="201656.0"/>
										<Node score="35835.64">
											<SimplePredicate field="double(0)" operator="lessOrEqual" value="201610.0"/>
										</Node>
									</Node>
								</Node>
							</Node>
							<Node score="27161.66">
								<SimplePredicate field="double(0)" operator="lessOrEqual" value="201709.5"/>
								<Node score="26364.62">
									<SimplePredicate field="double(0)" operator="lessOrEqual" value="201708.5"/>
									<Node score="27199.48">
										<SimplePredicate field="double(0)" operator="lessOrEqual" value="201707.5"/>
									</Node>
								</Node>
							</Node>
							<Node score="28354.51">
								<SimplePredicate field="double(0)" operator="lessOrEqual" value="201711.0"/>
							</Node>
						</Node>
						<Node score="39471.09">
							<SimplePredicate field="double(0)" operator="lessOrEqual" value="201801.5"/>
						</Node>
						<Node score="27523.8">
							<SimplePredicate field="double(0)" operator="lessOrEqual" value="201902.0"/>
							<Node score="35192.65">
								<SimplePredicate field="double(0)" operator="lessOrEqual" value="201811.5"/>
								<Node score="30796.37">
									<SimplePredicate field="double(0)" operator="lessOrEqual" value="201809.5"/>
									<Node score="34168.06">
										<SimplePredicate field="double(0)" operator="lessOrEqual" value="201802.5"/>
									</Node>
									<Node score="28248.77">
										<SimplePredicate field="double(0)" operator="lessOrEqual" value="201805.0"/>
									</Node>
									<Node score="33748.42">
										<SimplePredicate field="double(0)" operator="lessOrEqual" value="201807.5"/>
									</Node>
								</Node>
							</Node>
							<Node score="29543.82">
								<SimplePredicate field="double(0)" operator="lessOrEqual" value="201856.5"/>
							</Node>
						</Node>
						<Node score="39689.86">
							<SimplePredicate field="double(0)" operator="lessOrEqual" value="202010.5"/>
							<Node score="40110.31">
								<SimplePredicate field="double(0)" operator="lessOrEqual" value="201903.5"/>
							</Node>
							<Node score="33277.69">
								<SimplePredicate field="double(0)" operator="lessOrEqual" value="202001.5"/>
								<Node score="36350.34">
									<SimplePredicate field="double(0)" operator="lessOrEqual" value="201910.0"/>
									<Node score="34958.03">
										<SimplePredicate field="double(0)" operator="lessOrEqual" value="201904.5"/>
									</Node>
									<Node score="36710.83">
										<SimplePredicate field="double(0)" operator="lessOrEqual" value="201906.5"/>
									</Node>
								</Node>
								<Node score="31496.53">
									<SimplePredicate field="double(0)" operator="lessOrEqual" value="201956.5"/>
								</Node>
							</Node>
							<Node score="35706.36">
								<SimplePredicate field="double(0)" operator="lessOrEqual" value="202008.0"/>
								<Node score="38197.16">
									<SimplePredicate field="double(0)" operator="lessOrEqual" value="202003.5"/>
								</Node>
								<Node score="34261.9">
									<SimplePredicate field="double(0)" operator="lessOrEqual" value="202005.5"/>
								</Node>
							</Node>
						</Node>
						<Node score="32556.87">
							<SimplePredicate field="double(0)" operator="lessOrEqual" value="202105.5"/>
							<Node score="27383.43">
								<SimplePredicate field="double(0)" operator="lessOrEqual" value="202102.0"/>
								<Node score="30594.66">
									<SimplePredicate field="double(0)" operator="lessOrEqual" value="202056.5"/>
									<Node score="32236.37">
										<SimplePredicate field="double(0)" operator="lessOrEqual" value="202011.5"/>
									</Node>
								</Node>
							</Node>
							<Node score="32261.57">
								<SimplePredicate field="double(0)" operator="lessOrEqual" value="202103.5"/>
							</Node>
							<Node score="32649.77">
								<SimplePredicate field="double(0)" operator="lessOrEqual" value="202104.5"/>
							</Node>
						</Node>
						<Node score="42094.42">
							<SimplePredicate field="double(0)" operator="lessOrEqual" value="202106.5"/>
						</Node>
						<Node score="30422.38">
							<SimplePredicate field="double(0)" operator="lessOrEqual" value="202107.5"/>
						</Node>
						<Node score="33623.59">
							<SimplePredicate field="double(0)" operator="lessOrEqual" value="202109.0"/>
						</Node>
						<Node score="38329.6">
							<SimplePredicate field="double(0)" operator="lessOrEqual" value="202110.5"/>
						</Node>
						<Node score="35286.81">
							<SimplePredicate field="double(0)" operator="lessOrEqual" value="202111.5"/>
						</Node>
					</Node>
				</TreeModel>
			</Segment>
			<Segment id="3">
				<True/>
				<TreeModel functionName="regression" algorithmName="sklearn.tree._classes.DecisionTreeRegressor" missingValueStrategy="nullPrediction" noTrueChildStrategy="returnLastPrediction">
					<MiningSchema>
						<MiningField name="double(0)"/>
						<MiningField name="double(1)"/>
					</MiningSchema>
					<Node score="35101.26">
						<True/>
						<Node score="39091.08">
							<SimplePredicate field="double(0)" operator="lessOrEqual" value="202101.5"/>
							<Node score="28354.51">
								<SimplePredicate field="double(0)" operator="lessOrEqual" value="201710.5"/>
								<Node score="38889.15">
									<SimplePredicate field="double(1)" operator="lessOrEqual" value="4.5"/>
									<Node score="29598.85">
										<SimplePredicate field="double(0)" operator="lessOrEqual" value="201708.5"/>
										<Node score="28707.78">
											<SimplePredicate field="double(0)" operator="lessOrEqual" value="201706.5"/>
											<Node score="40925.52">
												<SimplePredicate field="double(1)" operator="lessOrEqual" value="1.5"/>
												<Node score="28114.539999999997">
													<SimplePredicate field="double(0)" operator="lessOrEqual" value="201702.5"/>
													<Node score="36049.16">
														<SimplePredicate field="double(0)" operator="lessOrEqual" value="201656.5"/>
														<Node score="33125.31">
															<SimplePredicate field="double(0)" operator="lessOrEqual" value="201602.5"/>
															<Node score="33813.84">
																<SimplePredicate field="double(0)" operator="lessOrEqual" value="201601.5"/>
															</Node>
														</Node>
														<Node score="38604.29">
															<SimplePredicate field="double(0)" operator="lessOrEqual" value="201603.5"/>
														</Node>
														<Node score="29547.94">
															<SimplePredicate field="double(0)" operator="lessOrEqual" value="201610.0"/>
															<Node score="32690.54">
																<SimplePredicate field="double(0)" operator="lessOrEqual" value="201607.5"/>
																<Node score="32094.74">
																	<SimplePredicate field="double(0)" operator="lessOrEqual" value="201604.5"/>
																</Node>
																<Node score="37148.29">
																	<SimplePredicate field="double(0)" operator="lessOrEqual" value="201605.5"/>
																</Node>
															</Node>
														</Node>
													</Node>
												</Node>
											</Node>
											<Node score="38204.55">
												<SimplePredicate field="double(0)" operator="lessOrEqual" value="201601.5"/>
												<Node score="39724.29">
													<SimplePredicate field="double(1)" operator="lessOrEqual" value="2.5"/>
												</Node>
												<Node score="37667.41">
													<SimplePredicate field="double(1)" operator="lessOrEqual" value="3.5"/>
												</Node>
											</Node>
											<Node score="40891.95">
												<SimplePredicate field="double(0)" operator="lessOrEqual" value="201607.5"/>
												<Node score="33695.61">
													<SimplePredicate field="double(1)" operator="lessOrEqual" value="3.5"/>
													<Node score="31788.16">
														<SimplePredicate field="double(0)" operator="lessOrEqual" value="201604.5"/>
														<Node score="34221.28">
															<SimplePredicate field="double(1)" operator="lessOrEqual" value="2.5"/>
															<Node score="35308.1">
																<SimplePredicate field="double(0)" operator="lessOrEqual" value="201603.5"/>
															</Node>
														</Node>
														<Node score="33877.34">
															<SimplePredicate field="double(0)" operator="lessOrEqual" value="201603.0"/>
														</Node>
													</Node>
													<Node score="27144.55">
														<SimplePredicate field="double(1)" operator="lessOrEqual" value="2.5"/>
														<Node score="27359.0">
															<SimplePredicate field="double(0)" operator="lessOrEqual" value="201606.0"/>
														</Node>
													</Node>
												</Node>
												<Node score="37856.93">
													<SimplePredicate field="double(0)" operator="lessOrEqual" value="201606.5"/>
													<Node score="38387.85">
														<SimplePredicate field="double(0)" operator="lessOrEqual" value="201603.5"/>
													</Node>
													<Node score="32174.94">
														<SimplePredicate field="double(0)" operator="lessOrEqual" value="201605.0"/>
													</Node>
												</Node>
											</Node>
											<Node score="34187.34">
												<SimplePredicate field="double(1)" operator="lessOrEqual" value="3.5"/>
												<Node score="39326.99">
													<SimplePredicate field="double(0)" operator="lessOrEqual" value="201704.5"/>
													<Node score="29159.84">
														<SimplePredicate field="double(0)" operator="lessOrEqual" value="201656.5"/>
														<Node score="31576.21">
															<SimplePredicate field="double(0)" operator="lessOrEqual" value="201611.5"/>
															<Node score="41047.8">
																<SimplePredicate field="double(0)" operator="lessOrEqual" value="201610.5"/>
																<Node score="37914.91">
																	<SimplePredicate field="double(1)" operator="lessOrEqual" value="2.5"/>
																	<Node score="39444.82">
																		<SimplePredicate field="double(0)" operator="lessOrEqual" value="201608.5"/>
																	</Node>
																	<Node score="35957.09">
																		<SimplePredicate field="double(0)" operator="lessOrEqual" value="201609.5"/>
																	</Node>
																</Node>
															</Node>
															<Node score="37499.12">
																<SimplePredicate field="double(1)" operator="lessOrEqual" value="2.5"/>
															</Node>
														</Node>
													</Node>
													<Node score="41926.95">
														<SimplePredicate field="double(0)" operator="lessOrEqual" value="201703.0"/>
														<Node score="41898.77">
															<SimplePredicate field="double(0)" operator="lessOrEqual" value="201701.5"/>
														</Node>
													</Node>
													<Node score="36156.21">
														<SimplePredicate field="double(1)" operator="lessOrEqual" value="2.5"/>
													</Node>
												</Node>
												<Node score="34929.0">
													<SimplePredicate field="double(1)" operator="lessOrEqual" value="2.5"/>
													<Node score="34388.58">
														<SimplePredicate field="double(0)" operator="lessOrEqual" value="201705.5"/>
													</Node>
												</Node>
											</Node>
											<Node score="33937.21">
												<SimplePredicate field="double(0)" operator="lessOrEqual" value="201703.5"/>
												<Node score="29659.63">
													<SimplePredicate field="double(0)" operator="lessOrEqual" value="201611.5"/>
													<Node score="32102.47">
														<SimplePredicate field="double(0)" operator="lessOrEqual" value="201610.5"/>
														<Node score="32350.27">
															<SimplePredicate field="double(0)" operator="lessOrEqual" value="201609.0"/>
														</Node>
													</Node>
												</Node>
												<Node score="42663.52">
													<SimplePredicate field="double(0)" operator="lessOrEqual" value="201656.5"/>
												</Node>
												<Node score="35419.68">
													<SimplePredicate field="double(0)" operator="lessOrEqual" value="201701.5"/>
												</Node>
												<Node score="33919.32">
													<SimplePredicate field="double(0)" operator="lessOrEqual" value="201702.5"/>
												</Node>
											</Node>
										</Node>
										<Node score="38213.53">
											<SimplePredicate field="double(1)" operator="lessOrEqual" value="2.0"/>
											<Node score="41843.93">
												<SimplePredicate field="double(0)" operator="lessOrEqual" value="201707.5"/>
											</Node>
										</Node>
										<Node score="35837.19">
											<SimplePredicate field="double(0)" operator="lessOrEqual" value="201707.5"/>
										</Node>
									</Node>
									<Node score="29270.49">
										<SimplePredicate field="double(1)" operator="lessOrEqual" value="3.5"/>
										<Node score="26417.08">
											<SimplePredicate field="double(1)" operator="lessOrEqual" value="1.5"/>
										</Node>
										<Node score="31323.93">
											<SimplePredicate field="double(1)" operator="lessOrEqual" value="2.5"/>
											<Node score="32224.85">
												<SimplePredicate field="double(0)" operator="lessOrEqual" value="201709.5"/>
											</Node>
										</Node>
									</Node>
								</Node>
								<Node score="36168.48">
									<SimplePredicate field="double(0)" operator="lessOrEqual" value="201611.5"/>
									<Node score="34109.24">
										<SimplePredicate field="double(0)" operator="lessOrEqual" value="201605.5"/>
										<Node score="38363.55">
											<SimplePredicate field="double(0)" operator="lessOrEqual" value="201603.0"/>
											<Node score="31684.63">
												<SimplePredicate field="double(1)" operator="lessOrEqual" value="5.5"/>
												<Node score="32458.36">
													<SimplePredicate field="double(0)" operator="lessOrEqual" value="201601.5"/>
												</Node>
											</Node>
										</Node>
										<Node score="43833.0">
											<SimplePredicate field="double(1)" operator="lessOrEqual" value="5.5"/>
											<Node score="42879.37">
												<SimplePredicate field="double(0)" operator="lessOrEqual" value="201604.5"/>
											</Node>
										</Node>
									</Node>
									<Node score="32298.25">
										<SimplePredicate field="double(0)" operator="lessOrEqual" value="201610.5"/>
										<Node score="33086.38">
											<SimplePredicate field="double(0)" operator="lessOrEqual" value="201609.5"/>
											<Node score="30980.16">
												<SimplePredicate field="double(0)" operator="lessOrEqual" value="201607.5"/>
												<Node score="34521.59">
													<SimplePredicate field="double(0)" operator="lessOrEqual" value="201606.5"/>
													<Node score="32909.13">
														<SimplePredicate field="double(1)" operator="lessOrEqual" value="5.5"/>
													</Node>
												</Node>
												<Node score="33510.86">
													<SimplePredicate field="double(1)" operator="lessOrEqual" value="5.5"/>
												</Node>
											</Node>
											<Node score="34385.56">
												<SimplePredicate field="double(0)" operator="lessOrEqual" value="201608.5"/>
											</Node>
										</Node>
										<Node score="27809.33">
											<SimplePredicate field="double(1)" operator="lessOrEqual" value="5.5"/>
										</Node>
									</Node>
									<Node score="40194.01">
										<SimplePredicate field="double(1)" operator="lessOrEqual" value="5.5"/>
									</Node>
								</Node>
								<Node score="27161.66">
									<SimplePredicate field="double(0)" operator="lessOrEqual" value="201709.5"/>
									<Node score="27199.48">
										<SimplePredicate field="double(0)" operator="lessOrEqual" value="201707.5"/>
										<Node score="34040.56">
											<SimplePredicate field="double(1)" operator="lessOrEqual" value="5.5"/>
											<Node score="27439.07">
												<SimplePredicate field="double(0)" operator="lessOrEqual" value="201705.0"/>
												<Node score="28965.94">
													<SimplePredicate field="double(0)" operator="lessOrEqual" value="201703.5"/>
													<Node score="30355.34">
														<SimplePredicate field="double(0)" operator="lessOrEqual" value="201702.5"/>
														<Node score="29242.23">
															<SimplePredicate field="double(0)" operator="lessOrEqual" value="201701.5"/>
														</Node>
													</Node>
												</Node>
											</Node>
											<Node score="33787.02">
												<SimplePredicate field="double(0)" operator="lessOrEqual" value="201706.5"/>
											</Node>
										</Node>
										<Node score="36666.63">
											<SimplePredicate field="double(0)" operator="lessOrEqual" value="201705.5"/>
											<Node score="28503.62">
												<SimplePredicate field="double(0)" operator="lessOrEqual" value="201657.0"/>
											</Node>
											<Node score="38808.52">
												<SimplePredicate field="double(0)" operator="lessOrEqual" value="201702.5"/>
											</Node>
											<Node score="34844.85">
												<SimplePredicate field="double(0)" operator="lessOrEqual" value="201703.5"/>
											</Node>
										</Node>
									</Node>
									<Node score="26364.62">
										<SimplePredicate field="double(0)" operator="lessOrEqual" value="201708.5"/>
									</Node>
								</Node>
								<Node score="37767.36">
									<SimplePredicate field="double(1)" operator="lessOrEqual" value="5.5"/>
								</Node>
							</Node>
							<Node score="44128.37">
								<SimplePredicate field="double(0)" operator="lessOrEqual" value="201756.5"/>
								<Node score="33680.33">
									<SimplePredicate field="double(0)" operator="lessOrEqual" value="201711.5"/>
									<Node score="41443.6">
										<SimplePredicate field="double(1)" operator="lessOrEqual" value="3.5"/>
										<Node score="33846.18">
											<SimplePredicate field="double(1)" operator="lessOrEqual" value="2.5"/>
											<Node score="37760.32">
												<SimplePredicate field="double(1)" operator="lessOrEqual" value="1.5"/>
											</Node>
										</Node>
									</Node>
									<Node score="29991.64">
										<SimplePredicate field="double(1)" operator="lessOrEqual" value="4.5"/>
									</Node>
									<Node score="39482.55">
										<SimplePredicate field="double(1)" operator="lessOrEqual" value="5.5"/>
									</Node>
								</Node>
								<Node score="32725.97">
									<SimplePredicate field="double(1)" operator="lessOrEqual" value="2.5"/>
								</Node>
								<Node score="40677.01">
									<SimplePredicate field="double(1)" operator="lessOrEqual" value="4.5"/>
									<Node score="42006.48">
										<SimplePredicate field="double(1)" operator="lessOrEqual" value="3.5"/>
									</Node>
								</Node>
							</Node>
							<Node score="36442.04">
								<SimplePredicate field="double(0)" operator="lessOrEqual" value="202009.5"/>
								<Node score="35706.36">
									<SimplePredicate field="double(0)" operator="lessOrEqual" value="202006.5"/>
									<Node score="36530.67">
										<SimplePredicate field="double(0)" operator="lessOrEqual" value="201909.5"/>
										<Node score="40110.31">
											<SimplePredicate field="double(0)" operator="lessOrEqual" value="201903.5"/>
											<Node score="39471.09">
												<SimplePredicate field="double(0)" operator="lessOrEqual" value="201801.5"/>
												<Node score="30128.28">
													<SimplePredicate field="double(1)" operator="lessOrEqual" value="3.5"/>
													<Node score="31141.01">
														<SimplePredicate field="double(1)" operator="lessOrEqual" value="2.0"/>
													</Node>
												</Node>
												<Node score="34908.03">
													<SimplePredicate field="double(1)" operator="lessOrEqual" value="5.0"/>
												</Node>
											</Node>
											<Node score="34168.06">
												<SimplePredicate field="double(0)" operator="lessOrEqual" value="201802.5"/>
												<Node score="46062.83">
													<SimplePredicate field="double(1)" operator="lessOrEqual" value="1.5"/>
												</Node>
												<Node score="31883.63">
													<SimplePredicate field="double(1)" operator="lessOrEqual" value="2.5"/>
												</Node>
												<Node score="36443.44">
													<SimplePredicate field="double(1)" operator="lessOrEqual" value="5.5"/>
													<Node score="36943.59">
														<SimplePredicate field="double(1)" operator="lessOrEqual" value="4.0"/>
													</Node>
												</Node>
											</Node>
											<Node score="34134.11">
												<SimplePredicate field="double(0)" operator="lessOrEqual" value="201807.5"/>
												<Node score="28223.03">
													<SimplePredicate field="double(0)" operator="lessOrEqual" value="201805.5"/>
													<Node score="31309.650000000005">
														<SimplePredicate field="double(1)" operator="lessOrEqual" value="1.5"/>
													</Node>
													<Node score="36938.07">
														<SimplePredicate field="double(1)" operator="lessOrEqual" value="3.5"/>
														<Node score="41804.22">
															<SimplePredicate field="double(1)" operator="lessOrEqual" value="2.5"/>
														</Node>
														<Node score="39184.31">
															<SimplePredicate field="double(0)" operator="lessOrEqual" value="201804.5"/>
															<Node score="38336.95">
																<SimplePredicate field="double(0)" operator="lessOrEqual" value="201803.5"/>
															</Node>
														</Node>
													</Node>
													<Node score="46544.58">
														<SimplePredicate field="double(0)" operator="lessOrEqual" value="201804.5"/>
														<Node score="28248.77">
															<SimplePredicate field="double(0)" operator="lessOrEqual" value="201803.5"/>
														</Node>
														<Node score="37484.79">
															<SimplePredicate field="double(1)" operator="lessOrEqual" value="5.0"/>
														</Node>
													</Node>
												</Node>
												<Node score="28618.08">
													<SimplePredicate field="double(1)" operator="lessOrEqual" value="4.5"/>
													<Node score="34196.97">
														<SimplePredicate field="double(1)" operator="lessOrEqual" value="3.5"/>
														<Node score="31746.65">
															<SimplePredicate field="double(0)" operator="lessOrEqual" value="201806.5"/>
															<Node score="36003.67">
																<SimplePredicate field="double(1)" operator="lessOrEqual" value="2.5"/>
															</Node>
														</Node>
														<Node score="28210.54">
															<SimplePredicate field="double(1)" operator="lessOrEqual" value="2.5"/>
														</Node>
													</Node>
												</Node>
												<Node score="34071.42">
													<SimplePredicate field="double(0)" operator="lessOrEqual" value="201806.5"/>
												</Node>
											</Node>
											<Node score="34900.52">
												<SimplePredicate field="double(0)" operator="lessOrEqual" value="201810.5"/>
												<Node score="35876.91">
													<SimplePredicate field="double(1)" operator="lessOrEqual" value="5.5"/>
													<Node score="40156.43">
														<SimplePredicate field="double(0)" operator="lessOrEqual" value="201808.5"/>
														<Node score="46553.52">
															<SimplePredicate field="double(1)" operator="lessOrEqual" value="2.5"/>
														</Node>
														<Node score="35337.19">
															<SimplePredicate field="double(1)" operator="lessOrEqual" value="4.0"/>
														</Node>
													</Node>
													<Node score="40338.43">
														<SimplePredicate field="double(1)" operator="lessOrEqual" value="4.5"/>
														<Node score="37480.95">
															<SimplePredicate field="double(1)" operator="lessOrEqual" value="3.5"/>
															<Node score="37302.3">
																<SimplePredicate field="double(0)" operator="lessOrEqual" value="201809.5"/>
																<Node score="38446.36">
																	<SimplePredicate field="double(1)" operator="lessOrEqual" value="2.0"/>
																</Node>
															</Node>
															<Node score="33742.19">
																<SimplePredicate field="double(1)" operator="lessOrEqual" value="2.5"/>
															</Node>
														</Node>
													</Node>
													<Node score="33615.9">
